   -0.999984347261481    -0.165028051084386    -0.505922228799165     0.809306184672427     0.655634600508788    0.0746079511356577    -0.818019326691525     0.180217220066216    -0.504316483393459    -0.300951710576635     0.377961826221068     0.772062234474375     0.761534319337721     0.414749706946844    -0.611913870269068     0.392491923230788     0.626531425689595     0.343568303316631     0.658477414240352     0.983066065229041    -0.228461133888206     -0.89879481117185     0.152345922380847     0.626096021209888    -0.752725251835177     0.233220856279703     -0.11673479206708    0.0354144326576098    -0.833828573969113    -0.467761683961266    -0.909318567211422      0.72237487217522      0.99518307589434    0.0337792500303036     0.177998776716088     0.217566014521452     0.859336526359949     0.555801336364477    -0.135085789947975    -0.686248032100495      0.58621765897537     0.392631805178216    -0.768681254748583     0.473805578874986     -0.23923183842038    -0.224512556147666    -0.906144460117236    -0.597587442632714    -0.738942060528926    -0.302616306792805     0.880509962415594     0.147671821987923     0.791448146939021    -0.725813167973335    -0.954887182430777     0.668565714577476   -0.0359025667588704     0.789927367023159     0.552785002798697    -0.252695135139597     0.659237586058768    -0.555050771976418     0.281068171402045     0.661568007922213     0.445208247784175     0.670036573894234    0.0757974030161988      0.22221377786909     -0.36637127603712    -0.235840920423791     0.737817076671936    -0.677886677599454    -0.654952109815097    -0.334545566330913    -0.209238292747011    -0.760575680770516     0.894789521368853     0.291064625010832   -0.0334830998278929     0.775823688200038   -0.0325696695283174    -0.240140160282509    -0.956687780076958     0.179271868047897    -0.802285564971289    -0.565874584748351    -0.959029634203429     0.955694825884144     0.522721064109573     0.382025998658217     0.566910772488173    -0.587364421740257     0.513861207347304    -0.960607554897636     0.569765781331234     0.318892209111429     0.233590632031058     0.407059032673756    -0.388851026072182     0.334165443371964     0.563593872454388    -0.341160084304839     0.143876418886077    -0.235612553160468     0.113662749398827    -0.251378541671071     0.842932904561504     0.294828669041939      0.93494132512575    -0.444226474881518     0.870799073592399     -0.72185972878796    0.0321645760127178     0.254738076968393    -0.164923196329448    -0.199846192363409     0.409047894867785     0.167039722374231     0.381904440013418    -0.143517309406041     0.529770632115165      0.95515367959569    0.0106534021129246    -0.149740010808888     -0.13762349660084     0.585880197025371     0.574184675304631    -0.193814399449754    -0.448148164802246     0.629155500260923    -0.591215269768312    -0.233263160705645    -0.635190442247353    -0.340390404326056    -0.478187639829026     0.823249106924446     0.843112049960815     -0.72598020152941    -0.634497993993886     0.413876198900696    -0.781922435286419     0.257586486291879    0.0582648281163964  -0.00494070168184865    -0.981377985902956      0.25435544743806      0.03244800790081     0.206204115789333    -0.401000506568671    -0.371083486091472    -0.716787497048131    -0.375371150370552     0.933852533751526    -0.431566882056668     0.155260996653189     -0.54852492965144    -0.259084267982943     -1.08345506898542    -0.341703252348155     -1.00045384252591    -0.260269278632121      0.55605596863523    -0.780870456832485     0.903752622866809    -0.350291048675961   -0.0425231841942484    -0.897340174414532  -0.00265209256919336     0.956641893813685    -0.813357824366068     0.329113458851702     0.565819175797695    -0.984022326032882     0.108880948483662    -0.685520411614612     0.738204893869279      0.70177816094883     0.641753923711128    -0.195016085828659    -0.544447270349652     0.518658487930538     0.629182028429903    0.0549865317566317     0.852211414776266    -0.166260978371541     0.291748085761011     0.186659442341911     0.658996160172209     0.129007801239146    -0.504397136502583    -0.532570021205794    0.0738955913306094    -0.733683128744507     0.247314552847975  -0.00264407599544007    -0.143606272843036     0.125817863166609     0.557629333497225    0.0120470906683482     -0.63518348433662    -0.227806699378591      -0.3319797290182     0.173840861343767    -0.599067103775235     0.698009702722501     0.759795235502844    -0.159081797828181     0.770266523624511    -0.579726871755275   -0.0373127991840947     0.574361827147775    -0.629230060895951     0.947110324942558    -0.386860656942537    -0.318945544604356     0.374244731645346    -0.758297913947423     0.355741476972955     0.886188715021961    -0.842062049463465    -0.402393738517456     0.264531847961575     0.687984488199636     0.286509445818535      0.73358687154921    -0.138735617821735     0.606278556910982    -0.645493285148245    -0.348152979410662     0.214604613203215    -0.584436895463758    -0.652873895406631    -0.404257251485722   -0.0399845995503988    -0.843830571910536    -0.543762737590489     0.446576377136251     0.735836664672446     0.714359998872555     0.497954775874158    0.0487243377701029      0.88033464682465     0.681081676324747     0.831510064701743     0.475723446088952    -0.706562016595534     0.552489412272763     0.170522639080884     0.958548988205626     0.644386580699238     -0.68598802975473    -0.342908419459518     0.657099516197541     0.839113182018596    -0.174993355672824    -0.516679108313292    -0.292254377955856    -0.882919176315329     0.068892916462487     -0.61828482270299     0.273752224416383   -0.0213230448976988   -0.0493079709511906    -0.678078574597066    -0.470146581754623   -0.0536643478833471    -0.088131764478062     0.166158100590113     0.278384066627776    -0.319034317293697    -0.439960367293114    -0.255614438352139    -0.511563990275361    -0.757827389569188     -0.81603007060578      1.04834503265005   -0.0958758347273183    -0.842904034085415     0.650272227651041     0.254444311978197     0.811413919483898     -0.92643630019651     0.625581077524961     0.440358229563434     0.250080115383784     0.225120128814499     0.426843956558441     0.575741554582232     -1.24031077780586     0.160450833893185     0.547522235192273    -0.619255652928094      0.52645585332977    -0.267821822952437    -0.284137672238422      1.06392353398427    0.0470257409622528    0.0613682706775858     0.343543658050894     0.647592045874105     0.136963412913915     0.700180588701806    -0.445996325770324    -0.934444863089223     0.841686949967858    -0.269811543782443    -0.928001473740361    -0.184104637315841    -0.467966169875406     -0.32102801073297    -0.542174298794747     0.354470272509436    -0.681789239403256    -0.480357219606849    -0.266604999792552     0.151014073642332    -0.473684512572574     0.242749764001822     0.194237008163163    -0.556573090868555    -0.251656337702727     -0.47356365786708    -0.434944416993228    0.0632069221768926      0.36965365821242    -0.598683910472759    -0.373070229319249    -0.336228813494996    -0.182928173094384    -0.389061432971824    -0.943841910823132    -0.374438932689238    -0.459337618495391    -0.361691921317594    -0.555053475682452    -0.239577147523358    -0.373466043726693    -0.123067008892474     0.611153909165262    -0.318308151125486    -0.119106771030231    -0.586327401049056     -1.09534541596477    -0.664695456959762    -0.391370609871816     -0.12060835012243    -0.663302373093744    -0.852991499740642    -0.256142494571195    -0.790260910086877     0.316185568355825     0.724492046752089    -0.174429540154452    -0.291439788568313     0.408156661037361    -0.541824124858292     0.307780546924253     -1.50327302593075     0.346527358542479     0.214125379344587     0.209243655629372    -0.987837850871144    -0.144155970485943     -0.22936775847675     0.343331918217199    -0.957141828477031    -0.399344708063084     0.243742778762305     0.683516376347502     -1.24804806920001     0.138968838046544    -0.882055208118877    -0.353119907428235     -0.97660229134307    -0.764589140015258    -0.753927293259729    -0.693792833721432    -0.229802389579498     0.598307828978903    -0.257877625630431    -0.804444488052116      0.22438997312529    -0.182878321950762     0.476228606442027    -0.843705450107955     -1.26498316669669      0.13952309210531    -0.513337435325615    -0.850280861212238     0.029569657336354   -0.0739971389739018       0.1526400595744     0.912725504052809     0.404803923871199    -0.574833132190789    -0.518242496778745    -0.345187609156727     0.418960069306331    -0.213246981077209     0.504321047844842    -0.122297330771349    0.0312315919688122     0.507812376680514     0.546935421256751     -1.05530537094334     0.683182819309651     0.124197824710187    -0.311895189590847     0.352477270951676     0.895474010871599    -0.195837196322987    -0.246580819271417    -0.952059381712133     0.215567288520135     0.256202149684136      -0.9940443341498    -0.182452993431388    -0.182266950013405     0.254482230619815     0.524005492498889    -0.901631609913282     0.170795235791813    -0.976625597548595     0.109721406958793     0.231292887300869    0.0996053064401051    -0.338013453631686     0.293210787364752     0.723684832289292    -0.429654794717649    -0.867005894517216     0.107139332193487     0.678207593854846     0.239698771170513    -0.156397831534845     0.110616347998111     0.219237802678642    0.0260235350892541    -0.540164033189239    -0.403878997649086    -0.951910756556699    0.0677609229089031     -1.19801038901522    -0.409655257983846     0.676455253577809   -0.0178656475387391     0.284745326848807    -0.550937185223473    -0.877424470409029     0.559002036694302     0.768984828141342     0.251319978514273      0.76653318780142    -0.188593972385873     0.147682745568399    -0.500403366093318    -0.840787901660584     0.987970748340689     0.019405058268428     0.160963161727642      0.59531983891535    -0.610253114223146    -0.354978609585548     0.704710058130433     0.125736848492849     0.291403155758849    -0.134931690577638       -0.882991431036    -0.731830184388732      0.81653775388923     0.709378346330005   -0.0383206445539232      0.78325088629983     0.844969105183731    -0.317755037080666    -0.869400147974032    -0.812753582286068     0.886194595061043    -0.290064289858525    -0.843366930094503     0.471559368099065     0.819675719197639    -0.344559763890854       0.8249011309538    -0.757726464062288     0.671978894966919    -0.740828291037494    -0.525072596040268    -0.224445975699297     0.945016089401816     0.739391098819755    -0.181832022113625     0.547312799929486    -0.551449360759908    -0.673865748343558    -0.783464748214808     0.661084286222251    -0.331501124118991    -0.499253089331749    0.0420404642701311     0.559607235534721     0.764418595840798     0.592289992220283     0.442482466277193    -0.869700054453519    -0.402230243706621    -0.876278403181063     0.481534017207842    -0.437016593388132     0.462894134282959     0.283827949449839    -0.390606434374221     0.608701981519539    -0.644078397049542     0.505266807668142    -0.149220310856695     0.823183745617585     0.490273858947834       1.0350842512235     0.621879035804275    -0.673740580123958     0.209514971124428     0.651889670859141     0.197304199177979    -0.718701657384933     0.763317234275128     0.225364519214886     -0.09017961243499    -0.659398566108101     0.620824148663678     0.439142761081871      0.30840479570006   -0.0860821660576647     0.139765214924497   0.00944772474589281    -0.955432309003029    -0.775803528167819    -0.167886965063744      0.10745614134295     0.194236868713742     0.661704093833135     0.637666601090757    -0.164890965035509    0.0987692097434183    -0.256493742065652    -0.201267083718358     0.589497279449272     -1.04877634129636     0.275834958805501     -1.20779597295929   -0.0892137905399396    -0.907937511963669    -0.250453882198808     0.163990831701731     0.544745113677789    -0.270101102385388      1.03146536573355     0.387080571102971    -0.714138066437524     0.430967591683253    -0.937447983742435     0.793246243369531     -0.88639940510607     0.729376692029408     0.440340638322283    0.0652684820669189    -0.470652452205581    -0.483684271757048     0.665118185657853    0.0841695463248838     0.606251085619139     0.877999770183763   -0.0667929980501712     0.532229183651961     0.487056015913126    -0.378506417406086    -0.725918689813205     0.417815915676861    0.0711150329024676     0.915492568108965     0.701839146712181     0.593495767887067     0.482483195959412     0.402746962813138    -0.615860737965066     0.917996602035514    0.0814229023804774    -0.747906088735358    -0.384502504636167    -0.707967839924102     0.698713559307964    -0.992893724710679     0.430340313105003    -0.551104951236195     0.996552872929863     0.623506470776318    0.0373979914323575     -0.22222296058522     0.466383802559968     0.173621405413179     0.151952256619299     -1.25615220787562    -0.990009850045115    -0.367534253675561     0.209381546703125     -1.01347889152635     0.211729761798698     -0.19713068771154      1.04504928334631     0.974314275526464    -0.188841882484822     0.934805949615098     0.769334927687359    -0.314152890011817    -0.216041847971656     -0.65821699852721   0.00353000330614911     0.957322115584392    -0.993457292265438     0.572550985525602    -0.421490150725401    -0.604874868353354    -0.592626804550264     0.341493510781159     0.839228043796859     0.133848362332231    -0.620632967786663    -0.462704526792897    -0.171989509365202    -0.141154831031817     0.021437901313931    -0.404005595389517    -0.510597745490705    -0.815076053142077    -0.472914677859543    -0.720388071979433     0.154499238016294     -0.58168605717662     0.244716979081728     0.768346857351052    -0.793611005343431     0.418126726989517    -0.550641259313897    -0.684530006802191     0.264941857785425    -0.705347548101725    -0.422441861075685    -0.736184631511586     0.992582566775104     0.367340210062345    -0.726018764145363    -0.265611741939403     -1.01917583528212    -0.799244264524732    -0.524295636191043    -0.856305937033011    -0.903967185190611    -0.853434090186387    -0.703690726981436    -0.369715703461961    0.0271735556087846    -0.881898061786838     -0.65955624110955     0.816194104669179    -0.770551023900839   -0.0487130687585147    0.0901080168472377    0.0205065126997084     0.160782454969652     0.750343885538157   -0.0949463195640789     0.948612133017095      0.34816523797259     0.666187122308736     0.616840823212054    -0.754697314239204     0.704608255661434     0.231125558158697    0.0250604069074437     0.609915210168491    -0.135686636691321    -0.784184717561818    -0.115403030478982    -0.191998605279785    -0.134976889961931    -0.414246200419818     -1.22264943150565     -1.27136512250512    -0.190168329419623     0.588304189092804    -0.725933346858718     0.117193582855705    -0.285544124976863     -0.71511785080095    -0.380240370158099     -0.64309798948733    -0.534382376058697    -0.270629719411961    -0.972107133665108    -0.551196398935838     0.171755813607832    -0.888546603679912     0.624208565196254     0.213573449743248     0.377737687673316     0.570350970253483     -0.34915234696459     0.779104861567027     0.314844902898721     0.136528799869685    -0.731436898033759    -0.143314275776511     0.038016607645522      0.29351311597595     0.031725151039822     0.748743006030879    0.0210646550535915    -0.398791665281251    -0.480728816891374    -0.640909378058387     -0.32563396299127    0.0715127086526886    -0.295731297084325    -0.350566559800924    -0.554906656541049     0.988721006937188    -0.358175933361601   -0.0585608003002409     0.764093038516162    -0.440373438149865     -0.56745200118397     0.565493692239834     0.979987771497479     0.335108486699381      1.00278702086502    -0.684177367499219     0.257545213533828    -0.596593385871843     0.706746226181163     0.259080703967439   -0.0825736473374507    -0.628841098162069    0.0485098266790439    -0.488077648639212     0.141708134297483     0.913532962632417    -0.188607466069851     0.581155985249364    -0.711372978770732     0.367819078628007     0.870939100850788    -0.318383624210266     0.980733471435834     -0.63000397032727      -0.1028740038643    -0.221579778577005     0.816675003532635     0.162183595431123   -0.0882653757409497     0.416982643966089     0.873342407046819    -0.473023766013748    -0.790746536318281    -0.935620175011315    -0.456187379907401    -0.453540289615245     0.599968843474144    -0.428641459986009     0.788318265103273     0.435063807431675    -0.975892263473285     0.391541419625084   -0.0361418146315498    0.0900615741700229      0.89220911592581      0.87907042898223    -0.241153125551007    -0.729042636972866    -0.543427406129131     0.138767447798023     0.159617913495571    -0.774855643405977    0.0225654174678798   -0.0357901086266107
   -0.736924423713668     0.373545424720992     0.965100572428247   0.00904578948814683    -0.749269248800943   -0.0641652630009527    -0.450823704456363     0.910817652899221   -0.0471363938633056   -0.0953996614997273     0.404413297495066    0.0499748108209925    -0.120602879554335     0.656985972182872    -0.977714386237185     0.505866374262838     0.113671565015647     0.352473842609894    -0.970098862410569      0.39135830448538     0.253722740921063   -0.0443913652768319     0.477917454893662     0.795828474590475     0.946692406175049    -0.257068507027378     0.038349728583521    -0.789630323550492    -0.156842698881795      0.32937766300951    -0.917159122376311     0.954476648920438     0.279046596641277     0.349049453737145     0.850965599997832     0.338144194799531     0.554278607881479     0.851261533404092    -0.779175630717096    -0.677643291283021     0.045193934125129     0.759650071749168    -0.839256848833765     0.864109295870528     0.198499786008293    -0.325734915482774   -0.0766089338688089     0.132375539841793    -0.792187341407353    0.0694256516291857     0.193359844630855    -0.935461461804057     -0.13099439587956     -0.74191412783317    -0.788875114074384     0.583964903645201     0.585560483665001     0.309257558225308     0.688402895464001    -0.733458544150645    -0.719042301666047    -0.544130937177974     0.122035084839166   -0.0994927401306129    -0.919475060986068     -0.69319547256928    0.0669846547928957    -0.151605173068016    -0.770372184758776     0.885018062962792     0.985878814373262     -0.51195959009086    -0.602603520812803    -0.442748618882515     0.748865602880803    -0.186022302767684    -0.717723123472608     0.162970174856062     0.878958585294076     0.104682473024005     0.824008915844634    0.0837387599779128     0.948480246564597    -0.977713718999975   -0.0134904724608597    -0.654145865540088     0.831375204983774     0.970186802186959    0.0384294247465008     0.632037558791613    -0.988370121231357    0.0168220364334124    -0.637769753183045     0.921521021434011     0.476095079533664     0.235446842911773     0.703123281817688    -0.793954244096344     0.633539688831203    -0.421612084943935     -0.40769132879064    -0.433152043741435     -0.56651956901322     0.125755891830382     0.246341659353985    -0.438608633786316    -0.399987146310182    -0.725035785168677     0.189421898129837    -0.365967051987055     0.935338037199726    -0.296461739249743     0.590029045748538    -0.617387376434915     0.488286249287943     0.485393014152183     0.435469901419956     0.318488950433995    -0.485968423736978     0.601202949888419    -0.780848410107967      0.58932996798719    -0.602199654054207    -0.320243425235179    -0.281306762952181     -0.93318709786092     -1.18041113448206     0.482117036704445    0.0910620856863534    -0.443001576978345    -0.610479103260069    -0.850257316590079   -0.0561749936510155     0.996801460151072     0.890437501514505      0.76555124196667     0.126646591625427    -0.949598580304182    -0.870792184503273    -0.699540364499717     0.229630141160279    -0.743924892388249     0.815618174981773    -0.495096570849104     0.734701411190061     0.348495547834892    -0.201584928186152    -0.684028759584423     0.401967200305004     0.634006349829102     -1.00442997686981    -0.788986683020426     0.113604675759545    -0.247713188601272    -0.153438406586034     0.202017039495379    -0.305551339955629    -0.237512011740541    -0.817795621066613    -0.182261601732642   -0.0345931114827086    -0.961775874238657     0.103877056471924     0.456355920078823    -0.743245827621659   -0.0591404808451552     0.580433033582657    -0.792516676314003     0.280309326611603   -0.0902145931464642     0.804891403599446     0.129166450031367    0.0555116103204626    -0.916081349239684    -0.246061533130151   -0.0282471250815537     0.451688968826859    -0.418566329468228     0.180894302442645    -0.521975812202091    -0.180971678568714     0.124193844953871    -0.478213886053358    -0.769645870899809     0.418997638787577    -0.726304786304057   -0.0151482046011445    -0.270942615619568    -0.544713765879307     -0.14286025850064     -0.25534029896179      0.61711773840475    -0.879856077308088    -0.102399370733278    -0.659949206946075    -0.507247992417083    -0.201502976696734     0.918921965880818    -0.448700988098182    -0.739224297141153      0.23600963256009    -0.496559009617765    -0.108984544921499    -0.408165967875559     0.588282054882449    0.0435213281345965     0.688218782462265    -0.369935259878585     0.143154407865403    -0.519350687289163   -0.0265870019249337     0.563589212792302    -0.368606948662306    -0.130541257363941    -0.597556525177407    -0.271326665554166    0.0841857730035386     0.323457986963558    -0.470274952165067     0.690981927723237     0.224355101834553   -0.0546645379295861     -0.82861604297212     0.704610360306529     -0.21271708687917     0.987004209746253  -0.00404588344464406     0.178898085873564     0.494765192428822    -0.376810630217855     0.682188549139421      0.11460318110081     -0.78680787444916     0.446215040349184    -0.834964068492489    -0.166165943778155     -0.23521248331583     -0.50072091743304     0.526007107368966     0.044157168090412    -0.891315075020622     0.619064637963919   -0.0265817750143679     0.670451635583629    -0.678931999769176    0.0771585543531554     -1.00518909899063    -0.817200793676161    -0.633639492015057     0.634216394144279     0.665865334161408    -0.688301537619822    0.0188895391415754    -0.557326116106537    -0.770284744283442    -0.443953471246253      1.00056103031342    -0.763047034362128    -0.269806581088097    0.0866785880654808     -1.09374301638798    0.0145395495423722     0.384146287621384       0.1616394896222     0.348617839651387   -0.0472905762396689     -0.46260161677146   -0.0213162202526346    0.0587934549027261    -0.463776195033992     0.391530360010508     -1.22982296782017    -0.379730212395273     0.364384113934467     -1.02806287611017    -0.648388543968664     0.148890303326571     0.313667419864915     0.842209354591139     0.079397289238585   -0.0880698537959854    -0.435617161046855     0.264531314347204     0.388037543098016     0.480941145680401    -0.767333294796575     0.622370378961143     0.492400620703292    0.0655750893022369    -0.242021725442476    -0.104035395410851    -0.315380613365512      1.08858445259354     0.108867987831962    -0.408253781409673    -0.516359745035672     0.109043570612323    -0.521135609411511     0.684479079843054     0.125224692613559      0.44116546110672     -1.15388716201611      0.19588865739142    0.0157690623852291     -1.46006352080133       0.5281367964724     0.773375623292157    -0.419960806670394     0.126818205101368    0.0122144496921019     0.822098268063012    -0.207508463926724    -0.117290455973388    -0.456685904057337     0.936985741724004     0.350378738715547     0.980714164116576     0.920905065789132    -0.151737278469898     0.756725583099831    -0.309940932956256    -0.306061092615924    0.0156667251426589     0.473350230158975     0.759078084079459     0.349567089849545    -0.123024183634926  -0.00591236772320663     0.911893548371224    -0.845706689131829     0.522801506351753    -0.665295178298665    -0.476796123325118     0.223659970968816    -0.154157823108638     0.242613225888882    -0.502953021736137     0.776160525485816    -0.941866423248663    -0.631195565414057     -0.42799307321685     0.978038883032546     0.178460458571674    -0.342437370052068   0.00134942035849713   0.00902993605811057     0.421059284081765      0.56397029131474    -0.549305855437228    -0.572304672463239   -0.0911998548338439    0.0960818906010782     0.861586780708181     0.274407746233802      1.25312768531566     0.224731111591716     0.581343848055991      1.20961406425864   -0.0822496093538748     0.586957415007506     0.249760047891763     0.615376289207338     0.913288844562259    -0.243868862087671     0.375517681043277    -0.797673934494021     0.576070113908558     0.451500400992696     0.203787031779392    0.0811486556727473     0.946698240777275    0.0431272760772039     0.195132572537332     0.738487150531382     0.453128902534956     0.591235532348861    -0.905151552947277    -0.601595510426403    -0.558206100607991     0.282902396050361      1.36911455770999     0.994121523215991     0.345576650408444       1.4818540539436     0.255209915437659      0.23156573588992    -0.350794399221409     0.978824266359756     0.802806169942312     -1.06190589322004     -1.03389010421677    -0.666115963513276  -0.00396670437605147     0.530837196846761     0.430214037720191     0.297130068397131     0.543560110758305    -0.110173849220837     0.456197597380405     0.403259295719866     0.874508940946698    -0.411640851415623     -0.56225880803264    -0.666078448769474     0.493797507732319    -0.916024673565931     0.145820049591484     0.369682696427529      1.22009291530955    -0.372068837145817      1.08524937217059     0.205010777251899      1.25511347963454     0.784053444189649     0.829749104207099    -0.350855984086725     0.138659700241114    -0.620362142292264     -0.64262847903873    -0.280207706276221     0.217940734673981     0.348279488881011     0.455551549924622     0.481370350994673     0.188037310793404     0.394697313388369    -0.384517485733707     0.315642186368167     0.831028723854827   -0.0578021007714058    0.0382154705547824     0.540077182656201    -0.733472402136895    -0.839061592940876    -0.442030211487732      1.28596118243956     0.524473181676189     0.402667408267402      0.48859303602704     0.394125350520847    0.0859983067947427      1.09157045806793    -0.702212032985667     -0.49848418908016    -0.992465241454247    -0.988371855760102     0.785589861493134   -0.0180388199311454    -0.873976380871194     -0.48076742462548     0.102675793724228    -0.839911104575447     0.902947420456008     0.341691618583371     0.390541602580533    -0.093326170314716    -0.154511731455923    -0.676437712404775     0.456061556262357    -0.124306045938186    -0.440447068942622    -0.387954919528946     -0.29935963546669      1.25986515035034     0.736743306005953      1.01890867213746     0.696772408612433      0.43828918815463     0.751881489030129    -0.134845755262743   -0.0583762769402633    -0.868747710604252     0.149502233270729    -0.750406221958302     0.174109662589417     0.131896281252226    0.0505425180543877    0.0585697937130013     0.370347254397561    -0.550013372461086    -0.904908655661897    -0.998178707481638    -0.456387137561065    0.0314465105848754     0.633382270966396      0.49707079875846     -1.01250860134215     0.478692789157814    -0.516847712525885   -0.0906687310495352     0.599261407325872    -0.281100210927024     0.247516540253141    -0.486849154536243    -0.230296266310702     0.405001996540795    -0.665509129226537     0.172877613287096     -1.16116787457863   -0.0517910293639269     0.419236579065849    -0.809923915667817    -0.127998939924372    -0.684693001558901     0.402666958899567     0.386729137081853    -0.108864493106551     0.395223444472837    -0.321002980956818    -0.407725974137493     0.411078953403643     -1.04046164118433       0.2926408350082    -0.857319088375848    0.0547268817896782     0.380462265349263     0.541171567160848    -0.146402441045289     0.935185629211979     0.681795427346146    -0.144533816986082    -0.528353697511223    -0.329303720687591     0.647110849531556    -0.955089577778473      -0.2470247610901     -1.08833585869657     -1.03788832496666    -0.412626902599882    -0.817747802545555    -0.601302421787867    -0.566777732577489    -0.786933596818167     0.726191424233632    -0.520956344836124    -0.176475649546173    -0.433278096808279     -1.25857982374494     -1.26297946280245    -0.463289922101751     -0.86869067787166    -0.865191253630277    -0.755941467109335    -0.740818517549042    -0.243398679553043    -0.450345263314427    -0.214729387272804     0.289429216111084 -0.000597381368609429     0.565849476356266    -0.263941354739377     -0.59729628137792    -0.154939570449141     -1.00774808419712    -0.811105012974329    0.0976973195835575     0.507205566174401     0.387319105755739    -0.525649764682109     0.732815579333065     0.311737240902957     0.815958334571427     0.168378822991021     -1.02833769327486     0.547758906760284     0.524555838532019     -1.30181905765535     -1.33735690184669     -1.33886172109196     -0.11589622770678    -0.860166752651608     -0.63843368195065     0.562570075177258     0.317392068376912    0.0356342907064056     0.658986078474081     0.118424208899736     0.432858463769533    -0.532864048823946   -0.0940743982118006    -0.694891072230319     0.033617833255093     -1.03289942043408   -0.0736231833280076    -0.974961134543677    -0.465636610109763    -0.167189649596885    -0.688271217765325    -0.363320205367444     0.340896860554913    -0.337964126347001    0.0716042916724874       -1.018055646849     -1.07998786636391    -0.470740271368437     0.260088216324802    -0.260666823116255    -0.513376301137089     -1.22443355941157    -0.505665717162141     0.483940412999579   -0.0386492813674113    -0.513754881075168    -0.534878433605359     0.838571228397842     -1.03595486954006    -0.554537942613342     0.341657342055673    -0.268174135078747     0.247350542745077    -0.378133219533165    -0.940977924484853     -1.07137612323958    -0.300110429865226      0.57737032805593    -0.653066656007948     -0.70003031931396     0.266729725545319    0.0236594820814111     -0.34128140916746    0.0128932437891544     0.424464314488055    -0.538663831833993     -0.73612122921733    -0.618306465799096    -0.839760388360058    -0.743168627480748     -1.59157452580703     -1.60007755460678    -0.251958769084539    -0.449866955133243    -0.696508022995568    -0.753158347395471    0.0571043971920023    -0.496433650264281     -1.17301589779868    -0.532530327434131     -0.16300045172191    -0.263775037406258   -0.0537485462901616    -0.453255745933742    -0.698373437759163   -0.0504664581823531    -0.895773387546941     0.877803799639365    -0.776240945689492     0.096810135522751     0.793821214520022    -0.440573679687004     0.171642491743071     0.805905446684935     0.756484132071168    -0.654495685727134     -0.31547151850072      0.64726769619918   -0.0426466041762056    -0.607798537290732   -0.0131654969097762     -0.35470650006264    -0.649142265651837     -1.27860624902321    0.0320849329782234     0.525177698519661    -0.469666934896917     -0.42065666643407    -0.408927252001978    -0.346336443038709    -0.391315382086041    -0.964443344621619     -0.73170978216599     0.668370940545312    -0.675880381686557    -0.386845394683464     0.606964642930294    -0.767682210510479     0.648297216801243    -0.422058726916031     0.558205826109342     -0.73338865264101     0.200433175113498     0.631404678464054    -0.773569442958282   0.00388225376665079      -0.7733070116535    -0.151991827953801    -0.522339540300687    -0.805583141646667    -0.866972231559209     0.530885156670165    -0.335299390855647   -0.0541748764398357     0.320927858450966     0.102721218084458      0.33708576647307   -0.0960161301148641    -0.418136091440505    -0.620546341092282     -0.13187310402555     0.152235443115313    0.0421230853731387     0.699959306837972     0.197231951727174     0.520057287413282    -0.482820661188766    -0.232571808333924    -0.523359812501213    -0.151149175123164   -0.0996523282652496      0.49812811093135     0.566988961797506     0.931498369552584    -0.583020188825235    -0.271679389827291     0.077074438680557     0.953464942947972        0.670822290175    -0.540762432791887    -0.517887248801306    -0.208919536127344    -0.657656756194052     0.467529579127551    -0.154227437937871   -0.0588232984446501    -0.405671315732448    -0.632399496133508    -0.560729428570051     0.657939619081879    -0.231370646148627     0.111698341142246     0.643625015226949     0.834216101017881    -0.886273201550363     0.699221314437163    -0.548504406150265    -0.516110526418826     0.775252396750884     0.495331433328189      0.66306632301682     0.935259256121146    -0.121292788314013    0.0430128368765308    -0.318450119968277    -0.761012226283482     0.932253114786626    -0.743712057616872    -0.487376825602788       1.0407911744911     0.442935489020567    -0.264479668838331    -0.194127130811948     0.785920970009012     0.479693083154156    -0.817722182657111    -0.438985123684621      0.99661705270252   -0.0913385437295486    -0.143215627010546    -0.180311589120101     0.523829921858306      0.22729713806291    -0.102528003989781       0.6549731248452    -0.975247592890776    -0.286583031629894     -0.36924102985528    0.0474484371578373     0.623481708690519    -0.213923346903961     0.163337801756988     0.204579979251745     0.733348111952993     0.318756997381859     0.985815267439676    -0.503260515673466   -0.0989918442584108    -0.341972112146081    -0.432810538579917    -0.439078549613111    -0.461369667656177    -0.384027795619194     0.698272120067045    -0.998798724263347    -0.743028617344344     0.475644312554805
    0.511210644390066     0.177953285713658     0.445320801551137     0.032583927285198      -0.9682645974533    -0.425575257011491    -0.994000798088499     0.112292277213322    -0.221371660577772     0.617889174082265     0.974290999571928   -0.0733545315793503   -0.0646767700576003    -0.810333813267965    -0.616352326744031     0.339041283910314     0.477993217985142    0.0278727444949898    -0.451580534433751    -0.440976514220693     0.318106660301847   -0.0856762077127007     0.358664397782956    -0.510827557887336    -0.940729415947911    -0.550397609151154     0.543888303238846     0.683152086885251    -0.055240106328968    -0.149617799161755    -0.693369778661695    -0.110961594204866   -0.0638446107426212     0.474368012498331     0.859427008854779  -0.00968573964316278    0.0264679499178926     0.363194691111881       0.5329175396638    -0.883304727633626     0.726915499920282    -0.280325451821724    -0.720719849717283    -0.398032430319743    -0.139035576546681     0.389009197246747     -0.24431893205692     0.663922296578328     0.330716093980329     0.328305142494303    -0.747907464710283    -0.297179469478472     0.377188452229457     0.649253507912743    -0.624042248178293     0.698135564894478    -0.484951042330335    -0.308218907242743   -0.0134012258676674    -0.476273844848836     0.602340130903764    -0.996836905605525    -0.246067505732345     0.283916743059117    -0.393356243237506    -0.203300293226726     0.493185915670647     0.168172502467409     0.165964921392614    -0.125812700446084   -0.0717712253574049    -0.592432698631087    -0.257024050944254    0.0456069222632485    -0.449671646181085    -0.365416824357411     -0.35404949841733      0.52220129488468     0.800356094692588    -0.829654379225151     0.406357349773575     0.939394330997439    -0.892495988818117    -0.434475232583692    -0.734370649668561    -0.229562132260558     0.919047228303905      0.16741834158984    -0.216456462097807     0.101173799253972    -0.827483264861965     0.790276378209065    -0.768883498944505     0.641879044461612   -0.0781492896990915      0.38229033350248    -0.890024329445874     0.527937727324576     0.972552482953304    -0.353320804299472    -0.376279187010676   -0.0399203289869756     0.904697927216364   -0.0607543361758716    0.0811907662491085    -0.901382150332032     0.507224096234309     0.526531672112836     0.930031110440293    -0.954587662686101     0.174140000707392    -0.632451570421668     0.618171895676372    -0.429622026110435    -0.352820234226061     0.960522344878868    -0.825585684816007    0.0628307278761861   -0.0715251839184628    -0.760101321311554    -0.293318020134634      0.78168196402066     0.347450024707238    0.0862949709369164     0.194461799594374     0.256887572861175    -0.385268482391719    -0.327798537798488     0.953898416763744      1.01050650794459     0.332868803146074    -0.588252690894022     0.568204898908671     -0.49458661351881    -0.859603823161931    -0.728806341961627      0.93687324700437    -0.266959451540459     0.002383914379991     0.917399078884927    -0.606217519196783     0.854333630695163    -0.131174332226189     0.035190710546131    -0.539660616981686    -0.976561982244555     0.212022890520791    -0.514720691561346   -0.0397536036098781     -0.55823947877352    -0.800248603518304       0.8462532296559      0.63655831032686     0.814295552504764    -0.315351013637816     0.287677440851522    -0.771991184980614      0.31300439865651    -0.302467885284551    -0.839115996551316     0.915566676517496    -0.588618879677144    -0.606965479817521     0.379437349558782    0.0225047561855217   -0.0496008999637004    -0.821902233773069     0.488503331103971    -0.841147638783393    -0.148601183403021     0.229063073218503      0.53048514436795    -0.463185692269439    -0.824855221236152     0.193977908883568    -0.247731064691998    -0.751888993085257   -0.0961234354573817     -0.12905965137401    -0.442990306984585    -0.133666999866691      1.22556479791988     0.561871652990436      1.32686763001255     0.953385190322995      0.43574010162177    -0.478030299346399     0.031724234898482     0.212665567449669    -0.773367272150549     0.841733973990259     0.295375469664436   -0.0847618494093902    -0.746108809947226    -0.407152074155837    0.0410734775281979    -0.534364119054213     0.194946985980718    -0.196063264616155    -0.663663504493674    -0.376300866119168     -0.76559800154537    -0.324418228272571     0.525441288232497     0.346121311027776    -0.425555228565293     0.219159317197363     0.582353845546656       1.2815571445561     0.442067251945197     0.986788287601079     0.238432467154661    0.0129362860018318     0.291754486274064    -0.463659980291198    -0.614005025434027     0.345636323829871    -0.304354937764702   0.00299901393516152     0.496204711685482      -1.0481653172421     0.884332757580093     0.949728717773685      0.31728144042042    -0.567935367039929   -0.0369030316394931     0.994356697449126     0.360687089790406     0.150865294725863      0.10520123841709    0.0627099383332707    0.0796870852339183     0.168636213714159     0.106694652816382     0.374991592726843     0.547275519712361       1.1775349983258     0.300252154342408     0.464396365572371     0.267107403475524    -0.579541656793035    -0.186345309056113    -0.224832271778718    -0.413417649508819      0.30448114674426    -0.602264660315455     0.196691513661309     -1.27097197850041    -0.833839062030347    -0.975727143832204     0.353392770861956    0.0061646264626487    -0.496508629416708    -0.721194162464627      1.00415787237555   -0.0992729715395488    -0.408594582569152     -1.00128969159398    -0.146092602846635    -0.669689759819038     0.676276250304616      1.21696515479881      1.22396295240574     0.976037817094636     0.569870521695459   -0.0485649823098785     0.100342522138872    -0.570989966483639     0.353722878530377    -0.722124955972616  -0.00840925684984284    -0.897471830120136     -1.53190215990024    -0.127580777178227    -0.989244347750971     0.443825016297508     -0.33943991425311    -0.853597851400042    0.0639992502762648     -0.58452579433393    -0.316789933325482     0.635676583764257    -0.445170240497731     0.617685473971834    -0.476147281741292     0.655627493602096      1.08529387295754   -0.0632299122817734      1.06019595806199    -0.212079364202029      1.18739859291019      1.01265397767874    -0.282119571885696    -0.151629732653083     0.127254585096764    -0.840979326227259    -0.100308254605846    0.0738563845453631   -0.0840207015100985    -0.763667860857973   -0.0959052027711623     -1.49886554095599    0.0303458742521195    -0.833536236633999     -0.44694678270445     0.235292545803454    0.0332165685894344    -0.805226092599493    -0.829337317216792     0.861278603643854     0.769659482139759    0.0437171571240306     0.853893148531535     0.916463283366384     0.972124866887696  0.000948749048335656     0.884306169953098     0.237112110414923    -0.429461094046446    -0.226175411887359     -0.33856373865711     -0.25422549895426     0.539967089157143    -0.281986672723599   -0.0259532016226701     0.544685777965085    -0.687213993230806    -0.728667750536991     0.549385256923881       0.5876993541083     0.354697854439979     0.242888939318477    -0.228372209392692    -0.245803938437982    -0.679999718821669     -0.65267111253782     0.812152502079703     0.606896730834889     0.569972045143082     0.426815570866699     0.024305531154376     0.440845449249709     0.427835506339202     0.670851725760427    -0.338363028288834     0.138950480464304    -0.361672168330378   -0.0795813658229056     -1.00443929111016   -0.0393517145079445    -0.557404887811384    -0.410889956081794     0.632189834219306    -0.199895846832934    0.0125896950134576     0.949201005493441     0.794997393619434     0.612075042556804    -0.654388215954246     0.817147102752429     0.772882906606411      0.53376778256518     -0.87714239638055    -0.356449208182831    -0.373021683806637     0.738608768929679     0.560276125834724    -0.956873523025127    0.0927306816605107     0.198337665274083     0.817179773450726 -0.000387312928826765     0.307903843091768   -0.0202545009998931     -0.44084632367251    -0.169043468665502     -1.00730975022328     0.506320448263159    -0.478579084161369      0.14717762074781     0.472417678962093    -0.166171379145476     0.954195982866842    -0.328549231041779    -0.468935695836575     0.317912819579536     0.195857288194603     -0.82862206831227    -0.280110454261876     0.433398447502381     0.959788594585526      0.59856845729406     0.882222969194916      0.78095238625456    -0.969421599818982     0.589012244320756    -0.830572555318442     0.224491122291087     -1.04525787540433    0.0490458920318969    -0.063594884239748      0.40054266285757    -0.390279571670698     -0.51218019993719     0.115793906155825     -1.10257530523076     0.472479871513865    -0.348154521878862    -0.174835396836528    -0.925173064766795    0.0181900906084618     0.302881141855431     0.486397493721058    -0.488828938441299    -0.253346386741835     0.584862933220055    -0.966603331376552    -0.732383133931568      0.25998298778446    -0.992649058475276   -0.0828294962955469      0.53390843079311    0.0346723372027255     -0.88952627067891     0.771966914362813      0.16242256051019     0.205985150238311     0.514230598926979     0.107514609512283    -0.610366093227258     0.500378011647294    -0.121049272622311     -1.06029726895155   0.00802927137674379     -1.28339725961636     0.146730378766734    -0.327415821435813     0.885087401710983     0.228420853671378    -0.857051452079707     0.266448642077195      0.65142199251657    -0.765540372738868    -0.198657039100204     0.314810304504908    -0.659169147216977    -0.650159509639304    -0.795653956238908     0.446115838622071     0.620384367904432     0.930657464047095     -0.14561362576803    0.0856981258779313    -0.613063521989186    -0.720249305175722     0.556571242463994     -0.78195394735707      -0.2150996401964     0.030220674726491    -0.972486653007534   -0.0473106973746933    -0.341178077288106     -1.38090701377751      0.38157127999889    -0.989437682974685    -0.269012139583146    0.0782310797859407     -0.50885466345792    0.0547951607707093     0.733444090184618    -0.525957529318837     0.908271866303111     -0.22141332808476     -0.84684626024933    -0.754909428281709     0.796914514940908    -0.531899059904692     0.620919740258884     0.670475845530084   -0.0205596029538935    -0.858327514967578     0.198073644497048   0.00675765825037105    -0.385622310639975       0.0378176017529     0.203788531671362    -0.231907062941687     0.179640806447925   0.00937903268299712    -0.374506380816199    -0.829458161201937    -0.513973053056497    -0.671491225854194       0.3701104946392    -0.594978268091389       0.7329995327818    -0.239694010114456    -0.104541985145036    -0.728545170820322    -0.165567636790924    -0.511633474181989    -0.325413457455216    -0.783958825695967    -0.856831095421955     0.397782963394238    -0.234241808436412     0.489244176211798    -0.951776726065814    -0.111054035006171     0.129294989926442    -0.365726310341073    -0.333163483944223    -0.740407736929381    -0.269298097191578    -0.544878204151958     0.837390935098864    -0.967269749664667    -0.566782619459398     0.406636545601082     -0.30308520620602    -0.434075060199391    0.0287548303422028     0.569760862589514     0.205075802898297    -0.627499831653086     0.307006861613523     0.689358415353624    -0.977234643395068    -0.904727168711111   -0.0641302163643401    -0.737328305775113    -0.233524573712659    0.0065330690396284   -0.0201031770320522    -0.299474505423456     0.655002761172374     0.538869570178249    -0.645974328347487    -0.360092483082067   -0.0979285021948145    -0.526785515724737    -0.395286424128946    -0.051472514343242    -0.312932474102421    -0.194287583324962    -0.867192126390514    -0.847117076114301    -0.292118338615457     0.686588972493713    -0.836864578837248     0.251136856595657     0.209511542337527     0.622367004419341    -0.360174311200695      0.52889544145606    -0.599211135139242    -0.394900558783475     0.422079361691072     0.515235672908787     -0.15108597477234     -0.63219214399913     -0.63738183859822     0.854222709501114     0.857645218108967     0.675891804492277    -0.680145324122345     0.831608456552523    -0.156790408821961     0.447702520042538    -0.323594353912441     -1.01123171965295     0.557119450137516    -0.385863605699853    -0.584079649452084    -0.415815905378957    -0.506300886352946    -0.248959845719703     0.516919794226615   -0.0492443698605983    0.0171751567490367     0.772933468681717    -0.428315822857102    -0.717619416888682     0.590306791579365    -0.349967996257136    -0.242854212016455     -0.37466982974259     0.573743803627768    -0.327069332116567     0.191729930773168    -0.985258912463759    0.0448049102980414     0.429833883497806    -0.816368347271662    -0.530465942341433     0.848973775941589    -0.221442009289441     0.239865844971312   -0.0230172628017948     -1.13306286849441     0.132982408351971    -0.745163662465587     0.656874761415534     0.383832301005871    -0.368695979603582     -1.09503389078108    -0.904857552945283     0.219482225425854    -0.923065955209948     0.103973055724886    -0.622113974457932   -0.0300311032948435    -0.337265753930134    -0.671248289182082   0.00297560616406039   -0.0927178617964712     0.586182372599958    -0.930999897222557     0.469117131312286    -0.788768518203179    -0.430902587548581     0.202852045518779    -0.737309337868457    0.0556641437941554     0.452580631198326    -0.601082905555652    -0.890013994813321    -0.345675836364958     0.438147891534542     0.796195266646666    -0.148831951387603    -0.502199165884249     0.290974259682477     0.521826048129711     0.162085058703644     0.319596612585472    -0.787404797346754     0.227957373262313    -0.230166434549608     0.877165165653448    -0.328711298204995     0.533665545250199    -0.607795107192613     0.734034877869264     -0.75153946119898    -0.281574203298229     0.382357913755153    -0.969034525974908     0.848966252699019    -0.201085770485907    -0.365183002803351     0.284132778156615     -1.07347939758299     0.341908850723016    -0.128808734265799     0.299029093904253    -0.191781831043946     -0.44972354378993     0.491545068687784    -0.280034352595896    0.0889827633959673     0.605184316004113    -0.949746225025383     0.459969288093696    -0.835441579998794     0.634654602355576     0.590046056908461      0.34358530477729     0.841188434885527    -0.772655184000643    -0.176546317095603     0.478424994032097     0.289451555018058    -0.745246270552858      0.74110930320177     0.620826468996891     -0.91008786561651     0.693152480635044     0.264406755438985   -0.0483301097234725     0.801646656220204     0.185880080046759    -0.352413816458271      0.68887142952766    -0.627561735336757    -0.441140637810181     0.118853621632464     0.948483440461029    -0.316302442176268      1.16252892456281    -0.231710794695604      0.75319029427878     0.897694698617479    -0.565875071468927      1.00739752659308     0.257726814249344    -0.358899140764825     0.431853929014602    -0.171988840121479    -0.037304133659836     0.216070025794241     0.877412678616779     0.690791446110068     0.667797869271907    -0.712835187503465     0.845280201225206    -0.453215017770918    -0.354943146905236    -0.296193467412536    -0.722914077753787    -0.752434454782526     0.244478248260039     0.476600904090798     0.475152774546819    0.0598626148891462     0.234643336905807      0.28915681131925    -0.295764386732498      1.04259758006016    -0.565433923386552     0.907823251679999   -0.0752353771714979     0.956451116162164     0.387275031805392     0.898910110574782    -0.592201086828055    -0.848931723174087    -0.646449819973879    -0.685980422276063    -0.594369080660105     0.670009807529864      0.83849534008734     0.654145932775171     0.592895095516952   -0.0934103822180216     0.316575012493426    0.0352570291626223     0.797693557890274    -0.603345608900617   0.00149398786129986     0.273964586269003     0.941862166418129     0.866265117030383     0.785842409796449     0.335556374301789     0.174484887515277     0.174010768126685     0.563165073327284      -0.7441169960471    -0.334314320344376    -0.773797983646055    -0.181766881184961    -0.445710297607636  -0.00573228088653343     0.142804771262596     0.873095537476752     0.974956833745799    -0.496878341537378   0.00949667254905062     0.182999423324596     0.218427008026508    -0.192803212777933     0.246011719104844    -0.394912479462963   -0.0733199422227235     0.873888634661239     0.720801312635059      -0.4694768660345    -0.552488408473864    -0.487293805974673     0.747483023081463    -0.618461247785102    -0.247667784657601    0.0314091360116386   -0.0299422975655229     0.073483802777176     -0.14880718425889     0.304962539104814    -0.751503897586563     0.764078179560425    -0.140478033172189    -0.810158694074563   -0.0819717063950243     0.153961108603497
  -0.0826997361531014     0.860872989455645     0.506711669967841    -0.361934117675728      0.37691060238374    -0.643344592136957    -0.171413473399083    -0.703696875694998     -0.59349933061446     0.863348800625349     0.908829805398746    -0.869612254141649     0.614708311464686    -0.834117954470262     0.965717942797769     0.266828411048755    -0.367985323708498     0.457216727294594     0.285957771952244     0.507725492821879     0.418639693138487      0.03997697263955    0.0725335381331544     0.521234587543288    -0.839293836541145    -0.532617003439282    -0.869287464706827    -0.262875719584001    -0.420467070965314    -0.626350511622778     0.534130032888674    -0.931513801185188     0.863830307575716     0.396924949287432    -0.138432766540773     0.145271041352136   -0.0116449301263217     0.652810948458572    -0.786923410558144    -0.680470186004121    -0.420171470291334    -0.796686916746579   -0.0398041530233589    -0.705591154270772    -0.709994971432397     -0.70720953528768    -0.682850805837384     -0.14980449675441      0.67011696529568    -0.352013857237099    -0.505713816005156     0.710546189590149    -0.593683379513064    0.0037074894661584    -0.278065132572346     -0.43556081849875    -0.572168445946727    -0.235174028778064     0.634633559655083    -0.747937471633763    -0.544828311197804    -0.103869300407694    -0.754824880471513     0.395903596639179    -0.583850390511633    -0.192794140043074     0.272538504677905      0.19239323999607   -0.0400997221879112     0.799854298237706    -0.384766888184801     0.322810058880033    0.0729699070273342    -0.222440394460618    -0.310916048601032    -0.189611816128197     0.973990019493984     0.855235413771721    -0.371734219763503     0.569202475492433    -0.214003294499781     0.480169098019262    -0.180084066083694    -0.225234034110435    -0.567508979499111    -0.250756903202625     0.137268757260294    -0.334372863216092     0.740231366420038    -0.409276911089618    -0.884294329780766     0.643871211961737     0.524891295028291     0.665407177794813    -0.213080708808653    -0.883747321555598     0.158270196046064     -1.02160986643893     -0.77494194444929     0.387209513408979     0.194998079417835     0.449199169392278      0.52580117538849    -0.777021656678351     0.521648660307314     0.214371471552482    -0.646396178383279    -0.272762823579599    -0.303596660808086     0.956917509512604      0.77111731942441     0.386455923033159    -0.384949367206986    -0.656637887610128     0.319452230164958    -0.309574363234123      0.16311622670739    -0.320270191431274    0.0561876543430133    0.0214425204470157     -1.09216788412644    0.0390542351583829    0.0601009201465135    -0.983882502073458    0.0955681538284617     -0.16772175050337    -0.416995992195673    -0.322122641067885    -0.568423231883686     0.105853742820374     -0.58515885899596     0.731204079909592    -0.472045178527725    -0.440116370863406     0.792523999798793     0.870531284022671    -0.433105676255057      0.70015861438371     0.960104646365553     0.732854069821855    -0.697845140331353     0.785331093606228     -0.53885224537752     0.880556032784713     -0.83278660876301    -0.559293134610401   -0.0998025944304233     0.183468065676258     -0.51461240261141    -0.986086637809454     -1.04711378854257    -0.973297619946478    -0.277190836713703    -0.138178853326859    -0.264770877678723    -0.400694335186478     -0.27165997387385     -1.00858881196555    -0.601298658586295     0.167203313136384    -0.977792499928848    -0.219045014833126     0.401437847300577     -0.21673523052439    -0.250592235419538    0.0993750940490591    -0.717171058582262     -0.12057693905622     0.831634967509487     0.466618181322429    -0.396732251940696     0.773369511173301     0.182747162435775     0.305147012856391    -0.544234388191922    -0.585071543675198    -0.476810847762037    -0.384312285451447    0.0145866118100095    -0.381538825413654    -0.203819020201433  -0.00958271460417902    -0.602760241943545     0.183570262224563    -0.427099198944363    -0.417460747288656     0.344620240030067    -0.054095818743558    0.0217192021798578    0.0287571365804285    0.0699040272143307     0.282453817329007     0.457197064195445     0.431080473333601     0.958643503861766     0.135792235223198     0.909073810813408    -0.724658697412292     0.698260952734764    -0.326486933454407     -0.46521224168733    -0.956892701706404    -0.668463495218297     0.509004777240063   -0.0419841375721741    -0.456624642730444   -0.0288006460053935    -0.318493443688719    -0.575827651169059      -0.5883975964545     0.302381315616137    -0.409206907729723    -0.309470903827715    -0.569166674233986     0.560489209836516    -0.750729782575716     0.405063420549911    -0.296914332133201    -0.907071583251291     0.290083548680933      -0.8477842997571     0.421608408723749     0.964908558036642     0.144438679034681     0.575539225565958    -0.787175719488063    -0.624940000373919    -0.700087286701992    -0.479065949230878    0.0443933632179871    -0.272506418318429      0.28524817081993     0.101681722753605    -0.313561357871058     -0.39894678202509   -0.0350981916505511     0.445757581779348    -0.716629732564176     0.590189596738799   0.00283292231717356     0.552132917165062     0.921913654361654    -0.177227465339023     0.241413485898483    -0.913117773297308     0.183031878176131     0.204398929994455     0.693981831295491    -0.209801797968507    -0.144875590653527       -0.540630502545     0.456977215405461    -0.843847824941876     0.651931690000931       0.5946360892495    -0.706576166749776    -0.898428131813284    -0.498859442715228    -0.959535573505637    -0.965083430372326    -0.346083540057551     0.383785532436666    -0.552083374253312     0.189111431143778    0.0816335238203736    0.0173216016907729     0.739484527114072    -0.431949856621158    0.0876545658455597    -0.491480505814033       0.2228361945947     0.806223209833851     0.535424842319282     0.315022350080312    -0.929425490284931     0.216018720989095     -0.66290059210734   -0.0617293581372754    -0.435069536131836     0.429103273321436    -0.289800460049624    -0.654066823738595    0.0760764648940943    -0.353129325100246     0.194409417498072     0.142373829264745      0.57523910270055     0.161009036592574     0.763578789412308     0.329770795787628    -0.253700185527437     0.601867594216081     0.732622604129803    -0.111140448153668     0.364763263850587     0.254831494256677    -0.202849940711882      0.24670397843927    -0.696988320955292     0.872441349235126    -0.792512276109507     0.780784066826281    -0.163129678415152     0.982136422474472     0.269140365455253     0.862679359871962    -0.754504298549625     -0.71945606057914    -0.631898295635551     0.844684833024463     0.772526652978488     0.813664185743016     0.700634620950328    -0.341823152607922     0.233679740515234     0.400791685751646     0.628448220801102     0.601081234065085      1.49180996157108     0.633372289272474    -0.247371222617382    -0.478193205250619     0.346559981943766    -0.257538869797194    -0.686317829725226     0.213084644726746    -0.799897136430468   -0.0682226591089125     0.657357101013156     0.833112907446297     0.733042368063985     0.013194292782048   -0.0730342220407148     -0.11548361669662    -0.683299779670889     0.682040232250063    -0.123491133836382    -0.890463398981649    -0.191238315431931     0.435497349079093    -0.358294250648468     0.328068806840853     0.202620802812239      1.20844428729642      1.20458208747959     0.798159000568728      -0.2141727344809     0.789684303257259     0.531538632776852    -0.410170387754538     0.456922630471469     0.370610813478389    -0.934017106486582     0.819955970596553     0.402173400406273      -0.3674384038326      -0.2059338054499      1.07459320916565      1.54891462653445     0.146415854138196    -0.264514144582691    -0.884872153706174     0.878708461136508     0.286610080911592     0.635172395021354     0.165407488398807    -0.468095828970423      0.74291573853554      1.01455122457338     0.680700317625731      1.04475987848239     0.658346863368305    -0.206868632428571    -0.377901864564558    -0.209678720514694    -0.183556028285506     0.654334635871604    -0.342881794727491     0.136231434680333     0.443042347001965     0.235430904244919      -1.0088298379049    -0.341033432254707    -0.313325839060132    -0.167814637559388     0.586013694432566    0.0214609772290962     0.840505282007814     0.444610716752336     0.127167929746272     0.942711934813614    -0.202653853714507    -0.689516454851414      0.15749183983079    -0.606799343837009    0.0167509445915301    -0.618677382799029    -0.551825653907656      1.18386981840716     0.219812694651206     0.225946417453559     0.906506444037466     0.719335970986687    -0.497605930291049    -0.363121392816406    -0.957199421086154     0.584554205818064    0.0993571967510156    -0.610089725110895     0.768297242714284     0.552899543044822     0.188046244983163     0.183953486854723     0.496710723027001      1.18111752156974     -0.15699052980262     0.640458212112886     0.772817768043647     -0.42321102203025     -0.27578289023475    -0.272584652766926     0.718136009639289      -0.4231048595226     0.402671670855811     0.517839643184259     0.229694581842581    -0.171432277307738     0.208161569929117     0.830517019868017    -0.625409181962755      0.60770230591374    0.0463314502118818    -0.358270864181366    -0.169271001956662     0.299480431490844    -0.320019759058987    -0.431734998851555     0.683767120175575    -0.550392524264612    -0.494542472781439     0.729683096350567     -0.17230415484924    0.0796366773004784     -0.26494700340497     -0.37534910468771      0.32098306386981     0.895811185734162   -0.0433405308095274    -0.634900901636771    -0.947592868583815    -0.614005146857233     0.850433448101317    -0.259238850386805  -0.00761508533349218     0.381396975264354      1.38558066746871    -0.505049408392306     0.812769892590834    -0.289516657861692     0.192465062643423    -0.297293825217617      0.32535974370514     0.860843046219951    0.0617255747701765     0.800001687236466     -0.44475677845012   -0.0514322132753945    -0.664830396962902     0.398264838855743   -0.0778159768158836    -0.321466327803812     0.346230218293346    -0.537939654572827    -0.994244306199468     0.679762097572285    -0.538578202324396      0.37250018183724    0.0710350885409985    -0.545880961859638    -0.168771413811399    0.0853926903740275     -0.96726812555439     0.302702001920184    -0.398531505578951      0.80013978744356     0.880448481179947     0.582061563599933      1.00621836919162     0.739071201970061    0.0292982812672506    -0.272009192704502      0.12810080960887    -0.796962843055051   -0.0133042619726887    0.0136629940735016    0.0882997699090525     -0.18438243564152   -0.0780972511769324    -0.277900062669491     0.516863220358052    -0.739429134367217     -0.60567500137872     0.486361497126988     0.448688785560989    -0.462194279402339    -0.374299685270215     0.561347723219162    0.0193411261127496     -1.50997301645364    0.0364733778646534     0.417706191372379     0.109860287295402     0.397613975229927     0.941743160687536     0.991633795909587      0.47744829219889     0.912047112650545      0.34619820849692     0.458014953775404    -0.176051426608408    -0.166567659743226      0.38779252988186     0.367382654978495    -0.630188213549551 -6.70105386266668e-05    -0.974420240434751    -0.382990521572345    -0.288165791951377     -1.24080607162679     -1.01907617611148     -0.62285609194111    -0.715304122363328    -0.199485749433969    -0.723796596996868     0.108441780293718     -1.08594335976847    -0.577128517141627   -0.0972482120922885     -1.48603011892801    -0.803935421256154    -0.296060099656907     0.428927723120089    0.0259421308046567     0.282797948741126    -0.332168398526589    0.0774034340208795     0.393527021692924    -0.245550455110944     -0.66936654415088     -1.18068130340302    -0.687662162862678     -1.14341380736846    -0.277349183578207     0.317131479484749    -0.163118703803392    -0.989998245415227    -0.628733872545935    -0.952398391917204    -0.228453000622487     0.900949182527083     0.746635806628799     0.897615246853361     0.133757666737998    -0.974630532940077    -0.213766951145437     -1.04851658621217     -1.00354472440955    -0.519398725765004    -0.136002259728827    -0.466867456036815    -0.671762956402244      0.80853110253821   -0.0200230085673291     0.109323560628461    0.0823860181818594     0.310946968311466    -0.409961208402515   -0.0988692945309299     0.354356937096507     0.256770000825162     -0.06777135585393     0.177327860131192     -1.14920743924868     -1.22292874547413     0.721190873321151    -0.178872044746281     0.416510608616605     0.900474167340509     0.946615563197065    0.0106604208481879     0.700463213307924     -1.09860293183946     -1.30724268399597    -0.653472604398656    -0.119463424961353     0.122246546795148   0.00995162329156402    -0.602466022482868     0.757500383821026    -0.767864327115991     0.857758317331314     0.083122675165049     0.737258611580817     0.700318721368757     -0.25401135176326      0.12963444672114     -1.00555787547978     -1.09720788336125       -1.073613490043     0.170881319160347     0.595626702246456     0.356668023207654     0.165240928884121     0.433205264702434      0.62570429587625   -0.0542578072917375   -0.0320107801121952    -0.370790107069891    0.0749768261441163    -0.286998159112416     0.499524827106884    0.0301249863129297     0.268229260696727    -0.705178286099604   -0.0369025590997217    -0.334253574967787    0.0689010262794318       0.4443015542563     0.379440252393943    -0.623157471175927    0.0222113404038956      0.29988243488627     0.906187407699695    -0.126041441614082   0.00446258409130928     -1.10516089495483      0.44427532756222    -0.783804116054673    -0.540890251153297    -0.775225507880152      0.93296233511056     0.286320116199988    -0.618521326590809    -0.605323824817143     0.876275628747547    -0.417634833332912     0.142502739223343    -0.515865570858448     0.329153513393134     0.431233397142248     0.553591875631306     0.157075107837995     0.756432583069988    -0.153854679866869    -0.582073829546377     0.310975633589849     0.959737447957862    -0.447064031539889      1.17749095803298     0.321968702681355   -0.0192975379734724     0.466497153634853    -0.784082742044017    -0.239562155251973     0.659309064577065    -0.739310261448092     0.674027360939183    -0.799443565833524    -0.456989847010904    -0.448463461064397     0.604782093986254      0.88887469744723     0.812285188498108     0.645930818117191    -0.200703266317545    -0.914220353339615    -0.574465671306965    -0.812465685848142     0.020450974949898    -0.211005067196524    -0.707961930064684    0.0763491783450578   -0.0610772262071242      0.38557661909539    -0.491673143487958    -0.295719720005265    -0.221992062135387     0.775704186207975     0.182376441274665     0.641840298647226    -0.602551617819435    -0.293641244058115     0.913877859959261    -0.850116475895453     -0.59903219994632    0.0612392300016628    0.0781637002236502    -0.172988888294605   -0.0113454799400448    -0.970574420863099     -0.51107647619726     0.674889512208705     0.393424724770563    0.0120562164274893    -0.614006998964598    -0.408616505478943     0.193581015069698     0.446467323752765     0.658363650585531     0.151975701154467   -0.0578218151392652    -0.950630436250858   -0.0489789911568926    -0.405654634283837     0.541996647338041   -0.0171559284155216    -0.589069428061613    -0.636277382231794     0.128747502837103     0.269455378415404     0.326474678054097    -0.719717655358831    0.0340710212753779    -0.147956463913038     0.111938401795033     0.587307476464662    0.0974324249340314    -0.882124300991243     0.727042806207688     0.438861345610982     0.854835154421085    -0.104973541205565     0.901957616053592     0.100455821000665     0.138291820544911     0.107927315830149    -0.400650248541072     0.889364105935369     0.372434896552733     -0.41475319558717    -0.356472304337555     -0.20525040950467     0.556341258538946    -0.211643790850228     0.340282840648896    -0.387055468985831    -0.514492213453155    -0.536880257045804     0.249192511080884     -0.90244181769927     0.719729422518996     0.248095759844186     0.112606132879781    -0.291194147257618     0.119790610447428      0.11669837176646    0.0995047656351258     0.965713781288692    -0.389424468106322    -0.328692183517242     0.433951774095944     0.027813081975587    -0.196952840002812    -0.123906766730358    -0.714240373251244    -0.101491918202892     0.184063149629501    -0.407508294975358     0.620022766823806    -0.564687065348061    -0.939789469416115     0.802241287258787    -0.220085059838333     0.437121475605071    -0.496369893539597     0.738079118676106   -0.0931412897142691     0.101772858192783     0.144647995239869    -0.270234121569902      0.98569647501488    -0.337171311181584      0.30153061882664    -0.375647701032296
   0.0655344748243385     0.692333781017146     0.303037149507104     0.973284224035816     0.736494263511381    -0.692560045836754    -0.946247418386046     0.966610194168338    -0.943249637234607     0.303292110237895     0.702539336729115      0.42684464129938    -0.269689410830739     0.528000773946377    -0.511887968930455    -0.887118527368197    -0.729335568719234     0.441535640247881     0.092273201370739    -0.657642142687758    0.0773225785593141    -0.107020847083545    -0.928824596073862     0.389712840034493   -0.0115107470245617     0.306023195994097    -0.114419327636445    -0.152219048306448      -0.7900617140299     0.926951155963797    -0.876537240052846    0.0475434805487951     0.381545237421112    -0.954400600289961    0.0119146083147168     0.177685937997259     0.298499060122824    0.0539477530295039    -0.117933629249927   -0.0640171420616756     0.738852858939064    -0.677988121467667     0.417109338121395    -0.780117320927024     0.340277336750434    -0.417069713060254     0.511288218425033      0.67873118300176     0.162477327305056     0.738375781761813     0.773449613364262    -0.258327423724777    -0.036559476068504     0.311775457724824       0.5593168565814    -0.470676508485655    -0.435071026643306     -0.56990167292296     0.285468599418149    -0.594367729155802    -0.201572687622152    -0.180469908532431    -0.102079363707138      0.62967884110384     0.618563408955546     0.680737822033766     0.967799159437178   -0.0206423549671463    -0.785895059545839     0.996227801133643   -0.0861426408248805      0.33863928492285     0.907356192294727     0.625725766582491    -0.649763620745301    -0.685198958348698    -0.304598943892502     0.705642434922617     0.257290230799031     0.542120750834798    -0.662813061486105     0.586775824796492    -0.672898668643506     0.491588705913903    -0.123418441565436    -0.471272126525302     0.995765655266729    0.0431398668141957    -0.334637750190486     0.174070342715671     0.853416623729688     0.913159497739938     0.964457592393832   0.00289562908907502     0.164588999439013      0.73640926368939     0.248929559202825    -0.626447295993431    -0.721322943877336    -0.978924724082731     -0.31304666563562     0.807539421079195   -0.0175595834308158    -0.248735868496212    0.0209162184921083     0.743929173063303     0.657710430489814    -0.993483051511682     0.727821931922935    -0.543110908761229    -0.308636976280813    -0.835301581693488     0.155985352190205    -0.112878110361673   0.00762332643024061    -0.239611025532215     0.860871186950011     0.834848341886391     0.553605102426316     0.161778174169907    -0.791176223739049    -0.426945679937475    -0.939814474335276      0.90332431756906     0.807494329156355     0.768768846709693     0.897356649866131     0.181309701951545    -0.503237702849216     0.256324481752199     0.891399238062821    -0.142629139208685    -0.454129168103776    -0.760924146575413    -0.549784768186663    0.0321006339197699     0.460360004546552    -0.274230627365379   0.00485755551036841     0.222927110225702    -0.683273549044166    -0.940309760132949   -0.0587163391948766    -0.784761504369144    -0.500764604222046    -0.632811996503295    -0.866858916915316     0.830225096554349   -0.0298525583543372     0.417979150319049    -0.890829214956493    -0.650616106242387    0.0560135619676932     -0.97255554930108     -0.89966507770688       0.2930106440223     0.637937489422264    -0.630904475099854    -0.601137213552956    -0.342573761915728    -0.273209521383245    -0.993495819124136   -0.0847393209178453    -0.153779054124136    -0.133025599582241    -0.969036860774054    -0.186273214735572     0.852198249385626    -0.711101068049251     0.296221330846459     0.439926062638881     0.971218746664454     0.637947639778853    -0.415197461166786   -0.0991511425859297     0.941803870716861     0.812673907814629    -0.178030630546327     0.915067793448368    -0.271470069153392     0.379907694406341     0.501948283506398    -0.573402762561865      0.35557943469408    -0.608049797374207    -0.159487670387224    -0.903078685880187    -0.374341231498943    -0.255655722739538     0.692228295194093     0.358490354593183    0.0950894811087795    -0.603636184819163    -0.950969167649891    -0.929876297533891     0.429888364417537      0.72131178668906    -0.873674185257851    -0.734259259506743    -0.161869632377157    -0.807820337882011    0.0777103187187505       1.1504809908381    -0.391720173596959     0.112071295685612    -0.719970120430035     0.296962926698224    -0.553301714180488    -0.163339791844507     0.602128515141877    0.0634553638102631     -1.01484213820733    -0.289806218265735    -0.342304645630857     0.799558773133903    -0.369646550145999     0.399090966073104    -0.214249588337455   -0.0233741186207314      1.10085668838398    -0.588260310286933    -0.670260841398786     -0.18483072406197     0.356491515566849     0.734851734289625     0.809096686002164     0.327188904099851   -0.0560119986934191     -0.48499383223367     -0.55112689943536   -0.0572461762281685    -0.388531217854253   -0.0810622827250396       1.1295285017331     0.152357996817337    -0.411287774462111      0.68369699193701     0.654851404390626     0.788387536506291    -0.732565734759692     0.649975530816577     0.254509538307904        0.817476048291    -0.536047945275243     0.437305721627461   -0.0526649679593703      1.11559230408768        1.198711885862     0.389435632192921    -0.616221720438016     0.896784132570456      0.25580091365037    -0.645620338886775   -0.0483170064740172    -0.229329245675528     0.971489748950955   -0.0574281840764698     0.433241637182698     0.402059678478766    -0.592259247028419    -0.239239096099122     0.717793418188129    -0.542256656674576     0.607294383997079     0.861031759760196      0.51480544590225     0.911139188233511     0.843668754314676     0.366064188047323     0.412842432462718    -0.413463352911089    -0.120779256422539      1.10405318773248     0.175443014847484   -0.0922876475849644    -0.574731977871212    -0.743269968456558     0.916096309966186     0.964248454487869     0.284364763690661    -0.610474774504172       0.1277591996223     0.934023386689815     0.969415540079046    -0.406019131078448      1.14738203405182     0.317177868394636    -0.648948072907013     0.113297325556202    -0.325281286746439    -0.589748335222559    -0.702686394661633     0.187980056775147      1.16565417689392     0.733381222006066    -0.150144547448277     0.881826317233805     0.701933004952104   0.00212536717572015     0.420357871925424    -0.619573976140681     0.609940728108774     0.562299776619065    -0.774048314732279    -0.387943734147068     0.285537675684158     0.315648541101968    -0.648887745562921    -0.979157318731413     0.388831139517041    -0.843981044340224      1.05278510147012    -0.725441766434077    -0.665080740358408    -0.379687557556079    0.0383055826074212    -0.666664351082595     0.695125440890324     0.614232906914574     -1.01613682426664    -0.314975692261056    -0.861663339838999    -0.581057690974312     0.376291427697392    -0.236502365651045     0.154823641407334    -0.975726325925349     0.171034630913222     0.587288561668136     0.243577799385972    0.0941948604619453    -0.640305321764165      0.50566721380866     0.763250207104625     0.326094189920846    -0.876172412458941     0.454247895824454     0.202622394337622     0.327037987497152     0.826469425831107    -0.819110389362155     0.118136843195508    0.0126756163476504     0.147520908806999     0.170662456881406    -0.975629870379856     0.385115026701228     -1.08819655744739     -1.49080008952078   0.00242748417469294    -0.509970106860738     -1.04735351225279    -0.447543122543818      0.60978076120923    -0.325094054494949     0.189284982724378     -1.08021481523151    -0.527874752617286     0.536141662223209    -0.664217418660177    -0.335975256962853     0.622817561024064    -0.565828027607854     0.819134613176094    -0.788388143929187     0.510279396696062     0.607162112442234     0.784258003030044     0.102688449635382     0.343620655901681     0.638825143076528    -0.635588786891156    -0.354382652759853    -0.752190172280343    -0.648744744181514     -1.60667974862956   -0.0557630734153915    -0.479339510358843    0.0701776693555212     -0.57348758087632     -0.81906563960528     0.171112968347814     -1.33942583163953    -0.457091298629357    -0.127882100708395    -0.278927132387566   -0.0301872792783637   -0.0553533071353543      0.13497669814262    -0.992703380787135     0.695654440602692     0.963862868721689   -0.0868265433902118     0.265855687267226    -0.330520584467038    -0.343353163350415   -0.0653006052354913     0.719041897468398    0.0305346239468465     0.474239182768855    -0.696815689824923     0.492131177869408     -1.23422621541929    -0.756881566076596    -0.664802838692487    -0.957347664418805    -0.031582060681869    -0.759337305578128    -0.190835964351612     0.373420455010705     0.252189495214302     0.306175530547189    -0.818013477484261   -0.0713575461047486    -0.731694190877344     0.414150328889574     0.824607439496705     0.932031238460732     0.193717653171661     0.171539934260003      0.20990780755869    -0.258917782044225    -0.911849746310715    -0.473338936814401     -0.75298632342653    -0.854280009138579    -0.191087203999132    -0.600356648958333    -0.180136847167928      -1.1519355954948    -0.779427756472203     0.155378953663037    -0.224214645107913    -0.165288536446838    -0.320588049242226    -0.751383563900479     0.240285850550828     0.323751797145128   -0.0988894128671965    -0.204659447268232     0.872541083676743     0.465878860410346   -0.0911786325608014     0.867838117817432     0.547586415924484    0.0893004462414338     0.542532931210962     0.633088843343474     0.575203080046807    -0.425315709228192    -0.304344052360622     0.181113767778863     0.274049219774809     0.554055776887278    0.0186288608147017      -1.0151994631746    -0.990118980580064    -0.422992007118692    -0.847417240109885    -0.810992744898913    -0.714293004268445     0.630019443185713    -0.352064407754952     -0.54895217059418     0.153115495182689    0.0985503653227251    -0.468164462647135    -0.312963149370764     0.340681617625334    0.0441691090722341    -0.300131507060088     0.203683079527689     0.909740333084528       0.2250212490013     0.590818830991018     0.567297440418711     0.610556138498036    -0.107336531892431     0.176470177185116     0.691310296516147    0.0580231900675126    -0.162729216420817    -0.780188035227592    -0.973415052329625     0.306601290946168    0.0355602109364645    0.0101388315001608     -1.05026943599039   -0.0203523275869095     0.640350531103105      1.10623715908066     0.680716495026793    -0.577621380916891     0.592169155713676    -0.317396032498504    -0.226834008461868     -0.35204430471328    -0.361057222318827    -0.613367931526026     -0.73619527778318    -0.253820676753095     0.872635072637279     -0.40782817698778     0.583193763299654     0.169736621449773    -0.932455842423694     0.216014024098239     0.455415995864375     0.780580449923852     -0.80240994024944    -0.918089133721525     0.458221577135561    -0.656621276466065     0.308033202676299     0.114060645157492      -1.1338346546672    -0.963601594042088     0.767910552010311     0.227491334474271    -0.158023323906538    -0.146239655817879     0.547266204886713     0.260471458731794     0.042206201589799     0.409464703388569    -0.469521997034114      0.56408263530186    -0.767661287314714     0.704442627007562     -0.27046631279641    -0.364605587846784    -0.825025351727614      0.89640851413591     0.916553776172947      0.25186668839626    -0.272007341801345    -0.288435170713037    -0.606060728065859  -0.00299984132949949     0.491185327430273    0.0851726056967244     -1.15137877738609    -0.156784697960187    -0.593803052609945     0.840097683066499    -0.227771947673791      1.07051448035409    -0.171423577092768    -0.599587929833086    -0.787222168218543     0.596576241006405     0.243034063727853     0.187669189557916    -0.277116436438857    -0.546173085898248     0.861633647076338     -1.00761778367596     0.855421528926977    -0.649699820764159    -0.316034058052779     0.708002010224388     0.848916647460573     0.410603955330974     0.796170166775283       0.5892225346214     0.177497352284223    -0.314005447255357     0.130919949392935     -1.02862883976512    -0.135175343615595     0.484334387840966      0.70451761411086     0.237129908512787    -0.108632427472345    -0.330241597065558     0.876714601829875    -0.766426591898453     0.413115065529266    -0.746791947905349    -0.593190799543003     -1.07158410238252     -1.16807939658388    -0.619934471430075   -0.0397113680641072     0.787879805960192    -0.784164399727275    -0.690035977267414   -0.0491496669285029    -0.408733888546991     0.770405748807198     0.966748253435124    -0.907776444239978      0.61166083343115     0.690802473180373    0.0518695753381627   -0.0109116251061897    -0.294318010000377    -0.533680612786176     -0.79068638975274    -0.749742043486304     0.539645235890636     0.793059721622455   -0.0692997653234501     -0.32935765887199     0.817284224205669    -0.386296104429089    -0.891166940838882    -0.355798795305357     0.181469681864325     0.597540314230751     -0.25849249904538    -0.429575548829356    -0.600841404997414    -0.523698973900621    -0.658683847646083     0.324803923617446    -0.176170120352593     0.146530537691863     0.727434315244655    0.0282572940827044   -0.0407763225210753     0.242692670423673      0.28795658397615     0.255846812140831    -0.330525552912838    -0.228727565224307     0.232309440084765    -0.720860740890421    -0.929147371034654      0.34250649277849    -0.381814381556151     0.629643018272017     0.195789134651097     0.348021256114501     -0.50527792174849    -0.529915391478726    -0.662032151781702    0.0243467198932532    -0.267165954866212      0.36671273985542     0.867185543415339    -0.371449585622394    -0.154623186769053     -0.93456171554555    -0.435507639979714       0.8113561737404    -0.559023897877161    -0.936157097295554     0.629404245169199    -0.421311547606717     0.762450877964458     0.131180670036069     -0.54702163859501    -0.351370126192346     0.204100332242708     0.420095517323039     0.207758892541747      0.89654336544427      0.81096934901428     0.294719730779723     0.157927085970154   -0.0510700589230512     0.254595036124272     0.791530025664824     -1.07804059590816      0.72799113660791     -1.05805802826542     0.696517528244631    -0.668931898015893    -0.779252075489609     0.392107023202846    -0.682960004398115    0.0771630877056919     0.159260095636947    -0.885052845772035     0.872233885068935    -0.113411671151532    0.0712660433817581     0.153834360271551     0.988616413191206    -0.285585272734813     0.543440644009216     0.939084100996729     0.735891038638722    -0.534050730772112   -0.0757660974978921     0.519229177633727     0.485412374656523    -0.323131866661151     0.640046073044885    0.0802600793158837     0.160584395993369    -0.528860870851859   0.00729146517963516     0.687385575761977     0.451885282604781     0.239319359285027   -0.0359115790743473   -0.0320354709453894    -0.444291446099193     0.337664552655846     0.868031691698372    -0.674985492860499     0.635776962632274    -0.317676557975722     0.857149160275756     0.752117398818094    -0.689557294862325   -0.0491290652016403    -0.388236028691847    -0.970480892139654    -0.221458061307831    0.0331280110103984  -0.00578793005708027    -0.200010991617911     0.236484858115784   -0.0529213063943843     0.751449087976935    -0.667631892594929   -0.0210790403803749     -0.98415546289712     -0.22317721415496     -0.83036705140239     0.113152371249284     -0.26610096971113     0.795615520741868    -0.178323698437184      0.13687324018072    -0.591556067388298   -0.0573643162182366    -0.785559644822758    -0.299743341803232    -0.779465927192008    -0.775967525722336     0.372635940752768    0.0780268195104531     0.477199194879138    -0.889079022989664     0.290154415609473    -0.491486628853295    -0.834815809057334     -0.42303327327087     0.129612038778837    -0.724987733161994    -0.401059807998631    -0.715247172960061    -0.329190815954652     0.682244618353497      0.21709077993773    0.0681621932555033     0.787270153134424     0.139812211329078      0.19662650373807    -0.100311915913969    -0.679210210069646    -0.650465721101717     0.376596029557565      0.75152211904131     0.942964537042642    -0.329528374285218    -0.572663787021601    -0.814958737598204    0.0760378976416777     0.948464466275347     0.689285205511213     0.890089560490838     0.899321732209468     0.582120096183466     0.586560133237732    -0.577924421064921     0.738662514621742    -0.245588883355033    -0.389676645105001    -0.552959664871554     0.603325352004966     0.287630061165128     0.133553491902568    -0.850155219913696    -0.180864234322268    -0.119413222549686     0.600655575096912    -0.838227028883168    -0.174889380659391     0.489088750206441
