   -1.56065075598845    -2.66457000289621   -0.237291218165734     1.50009035002255    -1.26909268320226    0.946696109778964     -2.1030271997814    -2.50475837726686   -0.322306152190828   -0.650288033348898    -2.16919513878841    0.621700148803953     1.97160377465351     1.63936038331568     1.17649392952466     -2.8407589639724    -3.10731045453252     2.47807981615484    0.798166634951622    -1.40141552845794
    1.10141441538913    -1.05949863154768   -0.564266845319128     2.04959021263016    0.985151274029403   -0.856511283929662   -0.236345750670031  -0.0993343882067094    -3.72365635522268    -1.14626788530359     2.47170072295369 -0.00540363550380782    0.568373869504965    -2.05009250853269    -1.13424181477242     3.01801773496078     1.07974336305469    -2.20199609718141    -3.03021718169921   -0.691211290450718
    1.72619411205178    -2.40416119953915    -1.22965563792241    -3.11443189888279 -0.00855365951025322    -1.79896755707483    0.963845353657846     2.09869900493638    -1.66214943768118    -2.15889317727363    -2.20814434118764    0.148468474674828    -1.45258172302128    0.752913130802369     2.29029142005471   0.0233384116989558    -1.98306113676512     1.12150204190326     2.80252258231787   -0.947124614719416
   -1.19461524655975    -2.89103839207082   -0.934425498712909    -2.87503387393074   -0.568680540119792     1.79333869230161    -1.07107070770577   -0.504184924991037     1.83980118403782    -1.18386680075192    0.504644555894555    0.133284633984218    0.533666672506228    -3.25678328607108    -2.61575560137835     1.76506302416536     1.14221863517446     2.12121766089524    0.963276160952577   -0.993837752299318
  -0.824341701822241     2.43901667684192    -2.86909508384948   -0.459705614571287   -0.678717748261695      3.1035558540514    -1.06075882087245    0.997396656675606   -0.209669544585671    -1.02556882326059    -1.74559245627318    -3.86489816666525    -2.92841042980782     1.51969555171217    -1.79358339919468   0.0519709383744135  -0.0538263486372603    -4.57040485919552     1.61950641661201   -0.477309555186626
    1.05761431373275    -3.14529657610566     1.61008975147934    -1.95873683480152    0.681138036060825    0.507388980073021     1.76086108768921    -3.83723899288542     0.40360611321282   0.0733030548376454    0.865909449780149    -2.31573616350717     2.13398567397489     2.11361266021325   -0.129487174178474     -1.6920737779146     2.05781393067779    -2.40985651469737    -2.43633936332196     -1.1476911831902
   -2.03958341243347     1.00000574749555   0.0521398423209877     2.54586449652221   -0.968379334102173    -3.05411677292488   -0.480812063908506    -2.55162416805478     1.15670904106231    -1.24797082239911     -3.5580575089919     1.92030308690263    -1.77849557271434    0.203540929882175     1.39109752572633     2.15334438854122     1.21572850609961     -3.3922645588541   -0.525104377084109    -1.77854607234248
   0.946415069252047     2.51660184074149      0.2459552986415     1.18039143491113     2.03743918440022    -2.22707868854549  -0.0100734828488835  -0.0188275887695313   -0.115579977193708     -1.2987531964559     1.99998920082452    -3.00861810201312     2.62803439686114    -3.15770982989573   -0.424710399581297    -1.75610268373429    -2.76206278197992   -0.271237033595263      1.6747650226584    -1.40878093246774
   -2.66296684088968    -2.99992077919986    -1.24718020051663    0.124517071290826    -1.10808190505126    0.291897419036903    -1.88167674885263     2.60360690623575     1.78806329824204   -0.808722806743358     2.54177166285164     2.04864368862349    -4.25964136191154    -0.18594168916263     3.33849076473893    -2.85049361230062     1.41165435561489   -0.347416691315614    -1.02992229486939     -3.6048433367117
   0.735764260127955     3.49936052156943     3.04223248597997   -0.366180829973017    -2.90004589109001     2.10201228327685    -1.39770227571262     1.10832227887615   -0.143040350192183    -1.77281487859256     -1.1307011862162   -0.925347045027405    -2.63180756676696    0.288330156849884    -1.88050908942327    -2.54953650256161    0.617396802761027     4.03975249511842    -2.48785582945964    -1.29276087804785